<?xml version="1.0"?>
<opencv_storage>
<cascade>
  <stageType>BOOST</stageType>
  <featureType>HAAR</featureType>
  <height>32</height>
  <width>32</width>
  <stageParams>
    <boostType>GAB</boostType>
    <minHitRate>9.9500000476837158e-01</minHitRate>
    <maxFalseAlarm>5.0000000000000000e-01</maxFalseAlarm>
    <weightTrimRate>9.4999998807907104e-01</weightTrimRate>
    <maxDepth>1</maxDepth>
    <maxWeakCount>100</maxWeakCount></stageParams>
  <featureParams>
    <maxCatCount>0</maxCatCount>
    <featSize>1</featSize>
    <mode>BASIC</mode></featureParams>
  <stageNum>14</stageNum>
  <stages>
    <!-- stage 0 -->
    <_>
      <maxWeakCount>7</maxWeakCount>
      <stageThreshold>-1.8579140901565552e+00</stageThreshold>
      <weakClassifiers>
        <_>
          <internalNodes>
            0 -1 65 -6.1720544472336769e-03</internalNodes>
          <leafValues>
            6.5217393636703491e-01 -8.7218046188354492e-01</leafValues></_>
        <_>
          <internalNodes>
            0 -1 40 -1.5523172914981842e-03</internalNodes>
          <leafValues>
            2.7070869691669941e-03 -7.3281103372573853e-01</leafValues></_>
        <_>
          <internalNodes>
            0 -1 19 7.0611104092677124e-06</internalNodes>
          <leafValues>
            9.4306759536266327e-02 -9.4711381196975708e-01</leafValues></_>
        <_>
          <internalNodes>
            0 -1 56 1.5288469148799777e-04</internalNodes>
          <leafValues>
            -4.6435707807540894e-01 3.9700239896774292e-01</leafValues></_>
        <_>
          <internalNodes>
            0 -1 23 -5.3054038435220718e-03</internalNodes>
          <leafValues>
            4.7841051220893860e-01 -3.6238089203834534e-01</leafValues></_>
        <_>
          <internalNodes>
            0 -1 30 7.5841462239623070e-03</internalNodes>
          <leafValues>
            -3.0867603421211243e-01 6.7693525552749634e-01</leafValues></_>
        <_>
          <internalNodes>
            0 -1 22 -2.1561019821092486e-04</internalNodes>
          <leafValues>
            -8.5947912931442261e-01 2.5329563021659851e-01</leafValues></_></weakClassifiers></_>
    <!-- stage 1 -->
    <_>
      <maxWeakCount>5</maxWeakCount>
      <stageThreshold>-1.4867599010467529e+00</stageThreshold>
      <weakClassifiers>
        <_>
          <internalNodes>
            0 -1 54 -2.7602108195424080e-02</internalNodes>
          <leafValues>
            8.9999997615814209e-01 -8.7253981828689575e-01</leafValues></_>
        <_>
          <internalNodes>
            0 -1 58 3.8504682481288910e-02</internalNodes>
          <leafValues>
            -5.7283252477645874e-01 5.6516301631927490e-01</leafValues></_>
        <_>
          <internalNodes>
            0 -1 89 -7.7688282544841059e-06</internalNodes>
          <leafValues>
            -8.9487272500991821e-01 2.0525518059730530e-01</leafValues></_>
        <_>
          <internalNodes>
            0 -1 70 2.1128039807081223e-02</internalNodes>
          <leafValues>
            -3.2413542270660400e-01 6.0776346921920776e-01</leafValues></_>
        <_>
          <internalNodes>
            0 -1 86 -6.8656436269520782e-06</internalNodes>
          <leafValues>
            -7.9223072528839111e-01 2.4572175741195679e-01</leafValues></_></weakClassifiers></_>
    <!-- stage 2 -->
    <_>
      <maxWeakCount>3</maxWeakCount>
      <stageThreshold>-1.4143880605697632e+00</stageThreshold>
      <weakClassifiers>
        <_>
          <internalNodes>
            0 -1 64 9.6445009112358093e-03</internalNodes>
          <leafValues>
            -8.7781953811645508e-01 9.1304349899291992e-01</leafValues></_>
        <_>
          <internalNodes>
            0 -1 0 2.1521617472171783e-01</internalNodes>
          <leafValues>
            -9.4843409955501556e-02 -9.4098377227783203e-01</leafValues></_>
        <_>
          <internalNodes>
            0 -1 72 4.5279957703314722e-04</internalNodes>
          <leafValues>
            -4.4172516465187073e-01 5.6569993495941162e-01</leafValues></_></weakClassifiers></_>
    <!-- stage 3 -->
    <_>
      <maxWeakCount>6</maxWeakCount>
      <stageThreshold>-1.7961647510528564e+00</stageThreshold>
      <weakClassifiers>
        <_>
          <internalNodes>
            0 -1 63 -1.6556750982999802e-02</internalNodes>
          <leafValues>
            8.7500000000000000e-01 -8.6554622650146484e-01</leafValues></_>
        <_>
          <internalNodes>
            0 -1 89 1.7195503460243344e-04</internalNodes>
          <leafValues>
            -7.6873712241649628e-02 -8.4131258726119995e-01</leafValues></_>
        <_>
          <internalNodes>
            0 -1 46 -9.1548623458947986e-05</internalNodes>
          <leafValues>
            -7.8557091951370239e-01 1.6260620951652527e-01</leafValues></_>
        <_>
          <internalNodes>
            0 -1 43 -7.1611531893722713e-05</internalNodes>
          <leafValues>
            -6.9472098350524902e-01 2.2395764291286469e-01</leafValues></_>
        <_>
          <internalNodes>
            0 -1 3 -6.8995464062027168e-06</internalNodes>
          <leafValues>
            -7.4978137016296387e-01 2.3525576293468475e-01</leafValues></_>
        <_>
          <internalNodes>
            0 -1 82 -5.1160536713723559e-06</internalNodes>
          <leafValues>
            -6.9623696804046631e-01 2.7391150593757629e-01</leafValues></_></weakClassifiers></_>
    <!-- stage 4 -->
    <_>
      <maxWeakCount>6</maxWeakCount>
      <stageThreshold>-1.8679206371307373e+00</stageThreshold>
      <weakClassifiers>
        <_>
          <internalNodes>
            0 -1 51 -8.3675608038902283e-02</internalNodes>
          <leafValues>
            1. -8.6393290758132935e-01</leafValues></_>
        <_>
          <internalNodes>
            0 -1 29 -2.0326436497271061e-03</internalNodes>
          <leafValues>
            3.4804794937372208e-02 -7.2030043601989746e-01</leafValues></_>
        <_>
          <internalNodes>
            0 -1 48 2.6475079357624054e-04</internalNodes>
          <leafValues>
            -5.3388768434524536e-01 2.8991326689720154e-01</leafValues></_>
        <_>
          <internalNodes>
            0 -1 1 2.1319079678505659e-05</internalNodes>
          <leafValues>
            2.2750782966613770e-01 -6.6928434371948242e-01</leafValues></_>
        <_>
          <internalNodes>
            0 -1 31 1.2947844516020268e-04</internalNodes>
          <leafValues>
            -2.9895243048667908e-01 4.8419234156608582e-01</leafValues></_>
        <_>
          <internalNodes>
            0 -1 39 -8.3011851529590786e-05</internalNodes>
          <leafValues>
            4.0208348631858826e-01 -3.8850852847099304e-01</leafValues></_></weakClassifiers></_>
    <!-- stage 5 -->
    <_>
      <maxWeakCount>6</maxWeakCount>
      <stageThreshold>-1.8373745679855347e+00</stageThreshold>
      <weakClassifiers>
        <_>
          <internalNodes>
            0 -1 24 -2.9057663679122925e-01</internalNodes>
          <leafValues>
            -1.6666667163372040e-01 -9.0514630079269409e-01</leafValues></_>
        <_>
          <internalNodes>
            0 -1 89 1.7995653615798801e-04</internalNodes>
          <leafValues>
            -1.1791022121906281e-01 -8.3736902475357056e-01</leafValues></_>
        <_>
          <internalNodes>
            0 -1 38 -8.2354550249874592e-04</internalNodes>
          <leafValues>
            -8.4129422903060913e-01 1.2305958569049835e-01</leafValues></_>
        <_>
          <internalNodes>
            0 -1 12 -1.2569266255013645e-04</internalNodes>
          <leafValues>
            -8.9942544698715210e-01 1.8216425180435181e-01</leafValues></_>
        <_>
          <internalNodes>
            0 -1 12 2.6017025811597705e-04</internalNodes>
          <leafValues>
            1.7137809097766876e-01 -8.0589026212692261e-01</leafValues></_>
        <_>
          <internalNodes>
            0 -1 53 2.1384007413871586e-04</internalNodes>
          <leafValues>
            -4.3974590301513672e-01 4.0580716729164124e-01</leafValues></_></weakClassifiers></_>
    <!-- stage 6 -->
    <_>
      <maxWeakCount>5</maxWeakCount>
      <stageThreshold>-2.2290043830871582e+00</stageThreshold>
      <weakClassifiers>
        <_>
          <internalNodes>
            0 -1 59 1.5836440725252032e-03</internalNodes>
          <leafValues>
            -9.3868923187255859e-01 -1.7730496823787689e-01</leafValues></_>
        <_>
          <internalNodes>
            0 -1 28 4.9930959939956665e-03</internalNodes>
          <leafValues>
            -7.6919239759445190e-01 4.5199060440063477e-01</leafValues></_>
        <_>
          <internalNodes>
            0 -1 68 4.3697038199752569e-04</internalNodes>
          <leafValues>
            -5.7796096801757813e-01 5.2063566446304321e-01</leafValues></_>
        <_>
          <internalNodes>
            0 -1 11 -1.5371067274827510e-04</internalNodes>
          <leafValues>
            5.2800744771957397e-01 -5.3525453805923462e-01</leafValues></_>
        <_>
          <internalNodes>
            0 -1 2 -2.5282148271799088e-04</internalNodes>
          <leafValues>
            5.9209263324737549e-01 -5.1163035631179810e-01</leafValues></_></weakClassifiers></_>
    <!-- stage 7 -->
    <_>
      <maxWeakCount>7</maxWeakCount>
      <stageThreshold>-1.6643055677413940e+00</stageThreshold>
      <weakClassifiers>
        <_>
          <internalNodes>
            0 -1 74 8.0440863966941833e-03</internalNodes>
          <leafValues>
            -8.6194032430648804e-01 7.3333334922790527e-01</leafValues></_>
        <_>
          <internalNodes>
            0 -1 7 1.7535032238811255e-03</internalNodes>
          <leafValues>
            -2.0631334185600281e-01 -8.9097017049789429e-01</leafValues></_>
        <_>
          <internalNodes>
            0 -1 88 3.0213077552616596e-03</internalNodes>
          <leafValues>
            6.5463773906230927e-02 -9.2711025476455688e-01</leafValues></_>
        <_>
          <internalNodes>
            0 -1 66 8.1457139458507299e-05</internalNodes>
          <leafValues>
            -3.8318455219268799e-01 3.4524405002593994e-01</leafValues></_>
        <_>
          <internalNodes>
            0 -1 87 -6.5950467251241207e-04</internalNodes>
          <leafValues>
            -7.4667823314666748e-01 1.9070117175579071e-01</leafValues></_>
        <_>
          <internalNodes>
            0 -1 75 2.0294115529395640e-05</internalNodes>
          <leafValues>
            -4.2381036281585693e-01 2.9114425182342529e-01</leafValues></_>
        <_>
          <internalNodes>
            0 -1 49 -2.8354700771160424e-04</internalNodes>
          <leafValues>
            -6.2011784315109253e-01 2.1892347931861877e-01</leafValues></_></weakClassifiers></_>
    <!-- stage 8 -->
    <_>
      <maxWeakCount>5</maxWeakCount>
      <stageThreshold>-1.9019663333892822e+00</stageThreshold>
      <weakClassifiers>
        <_>
          <internalNodes>
            0 -1 25 -2.6462925598025322e-02</internalNodes>
          <leafValues>
            3.3333334326744080e-01 -8.6981129646301270e-01</leafValues></_>
        <_>
          <internalNodes>
            0 -1 9 -4.6655416372232139e-04</internalNodes>
          <leafValues>
            -9.0322452783584595e-01 -1.4923849701881409e-01</leafValues></_>
        <_>
          <internalNodes>
            0 -1 84 1.4470919268205762e-04</internalNodes>
          <leafValues>
            8.9417800307273865e-02 -8.7819898128509521e-01</leafValues></_>
        <_>
          <internalNodes>
            0 -1 27 1.0984821245074272e-02</internalNodes>
          <leafValues>
            -4.1666644811630249e-01 3.9494287967681885e-01</leafValues></_>
        <_>
          <internalNodes>
            0 -1 5 -6.0263117775321007e-03</internalNodes>
          <leafValues>
            -8.1040245294570923e-01 1.9831816852092743e-01</leafValues></_></weakClassifiers></_>
    <!-- stage 9 -->
    <_>
      <maxWeakCount>7</maxWeakCount>
      <stageThreshold>-1.6211037635803223e+00</stageThreshold>
      <weakClassifiers>
        <_>
          <internalNodes>
            0 -1 57 -2.1134395152330399e-02</internalNodes>
          <leafValues>
            1. -8.5356813669204712e-01</leafValues></_>
        <_>
          <internalNodes>
            0 -1 17 -9.9288076162338257e-03</internalNodes>
          <leafValues>
            -5.3354859352111816e-02 -6.4125043153762817e-01</leafValues></_>
        <_>
          <internalNodes>
            0 -1 79 3.6492996150627732e-04</internalNodes>
          <leafValues>
            -3.5791674256324768e-01 3.3825287222862244e-01</leafValues></_>
        <_>
          <internalNodes>
            0 -1 85 -5.7257886510342360e-05</internalNodes>
          <leafValues>
            -7.0297461748123169e-01 1.7094974219799042e-01</leafValues></_>
        <_>
          <internalNodes>
            0 -1 15 -2.0734909921884537e-03</internalNodes>
          <leafValues>
            -8.8930565118789673e-01 1.4948667585849762e-01</leafValues></_>
        <_>
          <internalNodes>
            0 -1 20 2.9495251365005970e-03</internalNodes>
          <leafValues>
            -2.4944643676280975e-01 5.0142717361450195e-01</leafValues></_>
        <_>
          <internalNodes>
            0 -1 6 4.3394367821747437e-05</internalNodes>
          <leafValues>
            1.6064161062240601e-01 -8.3847677707672119e-01</leafValues></_></weakClassifiers></_>
    <!-- stage 10 -->
    <_>
      <maxWeakCount>11</maxWeakCount>
      <stageThreshold>-2.1134829521179199e+00</stageThreshold>
      <weakClassifiers>
        <_>
          <internalNodes>
            0 -1 62 -8.8527556508779526e-03</internalNodes>
          <leafValues>
            8.0000001192092896e-01 -8.5515320301055908e-01</leafValues></_>
        <_>
          <internalNodes>
            0 -1 32 -6.5785927290562540e-05</internalNodes>
          <leafValues>
            -4.0666308254003525e-02 -6.5703040361404419e-01</leafValues></_>
        <_>
          <internalNodes>
            0 -1 83 7.1191554889082909e-03</internalNodes>
          <leafValues>
            -3.6363667249679565e-01 3.4479627013206482e-01</leafValues></_>
        <_>
          <internalNodes>
            0 -1 10 -1.4688778901472688e-04</internalNodes>
          <leafValues>
            2.6518139243125916e-01 -4.1634061932563782e-01</leafValues></_>
        <_>
          <internalNodes>
            0 -1 26 2.0930339815095067e-04</internalNodes>
          <leafValues>
            -3.2588574290275574e-01 3.4119588136672974e-01</leafValues></_>
        <_>
          <internalNodes>
            0 -1 61 8.9423596858978271e-02</internalNodes>
          <leafValues>
            1.7141567170619965e-01 -8.9706176519393921e-01</leafValues></_>
        <_>
          <internalNodes>
            0 -1 21 1.8636875320225954e-03</internalNodes>
          <leafValues>
            1.1937952041625977e-01 -6.9577282667160034e-01</leafValues></_>
        <_>
          <internalNodes>
            0 -1 81 -7.0457786023325752e-06</internalNodes>
          <leafValues>
            -6.6148549318313599e-01 1.4861422777175903e-01</leafValues></_>
        <_>
          <internalNodes>
            0 -1 44 3.1508912798017263e-04</internalNodes>
          <leafValues>
            -2.5980597734451294e-01 4.1261160373687744e-01</leafValues></_>
        <_>
          <internalNodes>
            0 -1 42 5.6355961532972287e-06</internalNodes>
          <leafValues>
            1.9171781837940216e-01 -5.1544213294982910e-01</leafValues></_>
        <_>
          <internalNodes>
            0 -1 18 -1.6611777245998383e-02</internalNodes>
          <leafValues>
            -7.0334070920944214e-01 1.3324230909347534e-01</leafValues></_></weakClassifiers></_>
    <!-- stage 11 -->
    <_>
      <maxWeakCount>8</maxWeakCount>
      <stageThreshold>-1.8743487596511841e+00</stageThreshold>
      <weakClassifiers>
        <_>
          <internalNodes>
            0 -1 76 8.8673634454607964e-03</internalNodes>
          <leafValues>
            -8.5955053567886353e-01 2.6315790414810181e-01</leafValues></_>
        <_>
          <internalNodes>
            0 -1 37 4.6159490011632442e-03</internalNodes>
          <leafValues>
            -6.2128728628158569e-01 2.0805416628718376e-02</leafValues></_>
        <_>
          <internalNodes>
            0 -1 52 4.3388004996813834e-05</internalNodes>
          <leafValues>
            -4.3362963199615479e-01 2.8893658518791199e-01</leafValues></_>
        <_>
          <internalNodes>
            0 -1 34 -5.6609907187521458e-03</internalNodes>
          <leafValues>
            2.4908722937107086e-01 -4.2325237393379211e-01</leafValues></_>
        <_>
          <internalNodes>
            0 -1 77 1.9762318115681410e-03</internalNodes>
          <leafValues>
            -3.4223484992980957e-01 3.2247608900070190e-01</leafValues></_>
        <_>
          <internalNodes>
            0 -1 47 6.0943618882447481e-04</internalNodes>
          <leafValues>
            -3.2546901702880859e-01 3.5425189137458801e-01</leafValues></_>
        <_>
          <internalNodes>
            0 -1 60 -8.6314257714548148e-06</internalNodes>
          <leafValues>
            -6.8076092004776001e-01 1.5032176673412323e-01</leafValues></_>
        <_>
          <internalNodes>
            0 -1 73 2.4896595277823508e-04</internalNodes>
          <leafValues>
            -3.3367908000946045e-01 3.2094591856002808e-01</leafValues></_></weakClassifiers></_>
    <!-- stage 12 -->
    <_>
      <maxWeakCount>9</maxWeakCount>
      <stageThreshold>-1.7779767513275146e+00</stageThreshold>
      <weakClassifiers>
        <_>
          <internalNodes>
            0 -1 50 -1.7853466793894768e-02</internalNodes>
          <leafValues>
            5.3846156597137451e-01 -8.5661077499389648e-01</leafValues></_>
        <_>
          <internalNodes>
            0 -1 35 3.0676956521347165e-04</internalNodes>
          <leafValues>
            -5.5638509988784790e-01 1.0114809125661850e-01</leafValues></_>
        <_>
          <internalNodes>
            0 -1 16 -1.0508220642805099e-02</internalNodes>
          <leafValues>
            -8.4752804040908813e-01 9.6276335418224335e-02</leafValues></_>
        <_>
          <internalNodes>
            0 -1 41 7.4985101819038391e-02</internalNodes>
          <leafValues>
            1.6991296410560608e-01 -6.9545400142669678e-01</leafValues></_>
        <_>
          <internalNodes>
            0 -1 69 1.7739844042807817e-04</internalNodes>
          <leafValues>
            -3.3111220598220825e-01 2.8963357210159302e-01</leafValues></_>
        <_>
          <internalNodes>
            0 -1 8 -3.2053189352154732e-04</internalNodes>
          <leafValues>
            -8.5027170181274414e-01 1.2892434000968933e-01</leafValues></_>
        <_>
          <internalNodes>
            0 -1 67 -1.9393663853406906e-02</internalNodes>
          <leafValues>
            8.8531535863876343e-01 -1.4068530499935150e-01</leafValues></_>
        <_>
          <internalNodes>
            0 -1 78 -4.6771415509283543e-04</internalNodes>
          <leafValues>
            4.3722018599510193e-01 -1.8473577499389648e-01</leafValues></_>
        <_>
          <internalNodes>
            0 -1 38 5.0930929137393832e-04</internalNodes>
          <leafValues>
            1.4105992019176483e-01 -6.7221146821975708e-01</leafValues></_></weakClassifiers></_>
    <!-- stage 13 -->
    <_>
      <maxWeakCount>10</maxWeakCount>
      <stageThreshold>-1.9186916351318359e+00</stageThreshold>
      <weakClassifiers>
        <_>
          <internalNodes>
            0 -1 71 -2.0272549241781235e-02</internalNodes>
          <leafValues>
            1. -8.5013878345489502e-01</leafValues></_>
        <_>
          <internalNodes>
            0 -1 14 3.4382720477879047e-03</internalNodes>
          <leafValues>
            -5.1812064647674561e-01 2.1310533583164215e-01</leafValues></_>
        <_>
          <internalNodes>
            0 -1 13 -2.0990413031540811e-04</internalNodes>
          <leafValues>
            2.4816364049911499e-01 -3.6698091030120850e-01</leafValues></_>
        <_>
          <internalNodes>
            0 -1 45 -6.7172221839427948e-02</internalNodes>
          <leafValues>
            -6.5020620822906494e-01 1.4024586975574493e-01</leafValues></_>
        <_>
          <internalNodes>
            0 -1 36 4.2407942237332463e-04</internalNodes>
          <leafValues>
            -2.2688008844852448e-01 4.4934329390525818e-01</leafValues></_>
        <_>
          <internalNodes>
            0 -1 90 2.2436075378209352e-03</internalNodes>
          <leafValues>
            1.3728326559066772e-01 -7.3758053779602051e-01</leafValues></_>
        <_>
          <internalNodes>
            0 -1 80 3.5167796886526048e-04</internalNodes>
          <leafValues>
            1.0861696302890778e-01 -7.5365686416625977e-01</leafValues></_>
        <_>
          <internalNodes>
            0 -1 33 -7.8716475400142372e-05</internalNodes>
          <leafValues>
            2.7688923478126526e-01 -3.4375798702239990e-01</leafValues></_>
        <_>
          <internalNodes>
            0 -1 4 -1.2520966120064259e-03</internalNodes>
          <leafValues>
            4.3900263309478760e-01 -2.4583733081817627e-01</leafValues></_>
        <_>
          <internalNodes>
            0 -1 55 7.0004498411435634e-05</internalNodes>
          <leafValues>
            -4.0099483728408813e-01 2.4687804281711578e-01</leafValues></_></weakClassifiers></_></stages>
  <features>
    <_>
      <rects>
        <_>
          0 0 32 30 -1.</_>
        <_>
          16 0 16 30 2.</_></rects>
      <tilted>0</tilted></_>
    <_>
      <rects>
        <_>
          0 1 1 10 -1.</_>
        <_>
          0 6 1 5 2.</_></rects>
      <tilted>0</tilted></_>
    <_>
      <rects>
        <_>
          0 1 6 25 -1.</_>
        <_>
          3 1 3 25 2.</_></rects>
      <tilted>0</tilted></_>
    <_>
      <rects>
        <_>
          0 2 2 12 -1.</_>
        <_>
          0 6 2 4 3.</_></rects>
      <tilted>0</tilted></_>
    <_>
      <rects>
        <_>
          0 2 22 2 -1.</_>
        <_>
          0 2 11 1 2.</_>
        <_>
          11 3 11 1 2.</_></rects>
      <tilted>0</tilted></_>
    <_>
      <rects>
        <_>
          0 3 1 28 -1.</_>
        <_>
          0 17 1 14 2.</_></rects>
      <tilted>0</tilted></_>
    <_>
      <rects>
        <_>
          0 4 1 6 -1.</_>
        <_>
          0 6 1 2 3.</_></rects>
      <tilted>0</tilted></_>
    <_>
      <rects>
        <_>
          0 4 1 28 -1.</_>
        <_>
          0 18 1 14 2.</_></rects>
      <tilted>0</tilted></_>
    <_>
      <rects>
        <_>
          0 4 2 6 -1.</_>
        <_>
          0 6 2 2 3.</_></rects>
      <tilted>0</tilted></_>
    <_>
      <rects>
        <_>
          0 6 1 8 -1.</_>
        <_>
          0 10 1 4 2.</_></rects>
      <tilted>0</tilted></_>
    <_>
      <rects>
        <_>
          0 10 22 1 -1.</_>
        <_>
          11 10 11 1 2.</_></rects>
      <tilted>0</tilted></_>
    <_>
      <rects>
        <_>
          0 16 18 1 -1.</_>
        <_>
          9 16 9 1 2.</_></rects>
      <tilted>0</tilted></_>
    <_>
      <rects>
        <_>
          0 19 1 6 -1.</_>
        <_>
          0 21 1 2 3.</_></rects>
      <tilted>0</tilted></_>
    <_>
      <rects>
        <_>
          0 20 28 1 -1.</_>
        <_>
          14 20 14 1 2.</_></rects>
      <tilted>0</tilted></_>
    <_>
      <rects>
        <_>
          0 29 23 2 -1.</_>
        <_>
          0 30 23 1 2.</_></rects>
      <tilted>0</tilted></_>
    <_>
      <rects>
        <_>
          0 31 15 1 -1.</_>
        <_>
          5 31 5 1 3.</_></rects>
      <tilted>0</tilted></_>
    <_>
      <rects>
        <_>
          0 31 32 1 -1.</_>
        <_>
          16 31 16 1 2.</_></rects>
      <tilted>0</tilted></_>
    <_>
      <rects>
        <_>
          1 0 26 6 -1.</_>
        <_>
          1 3 26 3 2.</_></rects>
      <tilted>0</tilted></_>
    <_>
      <rects>
        <_>
          1 18 18 2 -1.</_>
        <_>
          10 18 9 2 2.</_></rects>
      <tilted>0</tilted></_>
    <_>
      <rects>
        <_>
          1 21 2 2 -1.</_>
        <_>
          1 21 1 1 2.</_>
        <_>
          2 22 1 1 2.</_></rects>
      <tilted>0</tilted></_>
    <_>
      <rects>
        <_>
          1 30 31 2 -1.</_>
        <_>
          1 31 31 1 2.</_></rects>
      <tilted>0</tilted></_>
    <_>
      <rects>
        <_>
          1 31 15 1 -1.</_>
        <_>
          6 31 5 1 3.</_></rects>
      <tilted>0</tilted></_>
    <_>
      <rects>
        <_>
          2 0 8 1 -1.</_>
        <_>
          6 0 4 1 2.</_></rects>
      <tilted>0</tilted></_>
    <_>
      <rects>
        <_>
          2 0 27 6 -1.</_>
        <_>
          2 2 27 2 3.</_></rects>
      <tilted>0</tilted></_>
    <_>
      <rects>
        <_>
          2 1 30 28 -1.</_>
        <_>
          12 1 10 28 3.</_></rects>
      <tilted>0</tilted></_>
    <_>
      <rects>
        <_>
          2 4 27 1 -1.</_>
        <_>
          11 4 9 1 3.</_></rects>
      <tilted>0</tilted></_>
    <_>
      <rects>
        <_>
          2 6 21 2 -1.</_>
        <_>
          2 7 21 1 2.</_></rects>
      <tilted>0</tilted></_>
    <_>
      <rects>
        <_>
          3 15 15 14 -1.</_>
        <_>
          8 15 5 14 3.</_></rects>
      <tilted>0</tilted></_>
    <_>
      <rects>
        <_>
          3 15 16 12 -1.</_>
        <_>
          3 19 16 4 3.</_></rects>
      <tilted>0</tilted></_>
    <_>
      <rects>
        <_>
          4 0 26 4 -1.</_>
        <_>
          4 2 26 2 2.</_></rects>
      <tilted>0</tilted></_>
    <_>
      <rects>
        <_>
          4 0 26 6 -1.</_>
        <_>
          4 2 26 2 3.</_></rects>
      <tilted>0</tilted></_>
    <_>
      <rects>
        <_>
          4 5 9 2 -1.</_>
        <_>
          4 6 9 1 2.</_></rects>
      <tilted>0</tilted></_>
    <_>
      <rects>
        <_>
          4 22 21 2 -1.</_>
        <_>
          4 23 21 1 2.</_></rects>
      <tilted>0</tilted></_>
    <_>
      <rects>
        <_>
          5 1 6 24 -1.</_>
        <_>
          5 1 3 12 2.</_>
        <_>
          8 13 3 12 2.</_></rects>
      <tilted>0</tilted></_>
    <_>
      <rects>
        <_>
          5 10 12 9 -1.</_>
        <_>
          11 10 6 9 2.</_></rects>
      <tilted>0</tilted></_>
    <_>
      <rects>
        <_>
          5 21 6 1 -1.</_>
        <_>
          7 21 2 1 3.</_></rects>
      <tilted>0</tilted></_>
    <_>
      <rects>
        <_>
          5 22 3 8 -1.</_>
        <_>
          5 26 3 4 2.</_></rects>
      <tilted>0</tilted></_>
    <_>
      <rects>
        <_>
          5 24 12 7 -1.</_>
        <_>
          9 24 4 7 3.</_></rects>
      <tilted>0</tilted></_>
    <_>
      <rects>
        <_>
          6 0 12 1 -1.</_>
        <_>
          10 0 4 1 3.</_></rects>
      <tilted>0</tilted></_>
    <_>
      <rects>
        <_>
          6 9 18 2 -1.</_>
        <_>
          6 9 9 1 2.</_>
        <_>
          15 10 9 1 2.</_></rects>
      <tilted>0</tilted></_>
    <_>
      <rects>
        <_>
          6 16 14 2 -1.</_>
        <_>
          13 16 7 2 2.</_></rects>
      <tilted>0</tilted></_>
    <_>
      <rects>
        <_>
          8 13 17 16 -1.</_>
        <_>
          8 21 17 8 2.</_></rects>
      <tilted>0</tilted></_>
    <_>
      <rects>
        <_>
          8 14 6 4 -1.</_>
        <_>
          8 14 3 2 2.</_>
        <_>
          11 16 3 2 2.</_></rects>
      <tilted>0</tilted></_>
    <_>
      <rects>
        <_>
          8 21 1 8 -1.</_>
        <_>
          8 25 1 4 2.</_></rects>
      <tilted>0</tilted></_>
    <_>
      <rects>
        <_>
          8 22 6 1 -1.</_>
        <_>
          10 22 2 1 3.</_></rects>
      <tilted>0</tilted></_>
    <_>
      <rects>
        <_>
          9 3 18 20 -1.</_>
        <_>
          9 13 18 10 2.</_></rects>
      <tilted>0</tilted></_>
    <_>
      <rects>
        <_>
          10 0 8 1 -1.</_>
        <_>
          14 0 4 1 2.</_></rects>
      <tilted>0</tilted></_>
    <_>
      <rects>
        <_>
          10 2 12 11 -1.</_>
        <_>
          14 2 4 11 3.</_></rects>
      <tilted>0</tilted></_>
    <_>
      <rects>
        <_>
          10 17 20 1 -1.</_>
        <_>
          20 17 10 1 2.</_></rects>
      <tilted>0</tilted></_>
    <_>
      <rects>
        <_>
          10 31 12 1 -1.</_>
        <_>
          14 31 4 1 3.</_></rects>
      <tilted>0</tilted></_>
    <_>
      <rects>
        <_>
          11 5 9 1 -1.</_>
        <_>
          14 5 3 1 3.</_></rects>
      <tilted>0</tilted></_>
    <_>
      <rects>
        <_>
          11 5 9 9 -1.</_>
        <_>
          14 5 3 9 3.</_></rects>
      <tilted>0</tilted></_>
    <_>
      <rects>
        <_>
          11 10 14 2 -1.</_>
        <_>
          11 10 7 1 2.</_>
        <_>
          18 11 7 1 2.</_></rects>
      <tilted>0</tilted></_>
    <_>
      <rects>
        <_>
          11 13 6 4 -1.</_>
        <_>
          13 13 2 4 3.</_></rects>
      <tilted>0</tilted></_>
    <_>
      <rects>
        <_>
          11 13 9 3 -1.</_>
        <_>
          14 13 3 3 3.</_></rects>
      <tilted>0</tilted></_>
    <_>
      <rects>
        <_>
          11 16 12 1 -1.</_>
        <_>
          17 16 6 1 2.</_></rects>
      <tilted>0</tilted></_>
    <_>
      <rects>
        <_>
          11 16 12 2 -1.</_>
        <_>
          17 16 6 2 2.</_></rects>
      <tilted>0</tilted></_>
    <_>
      <rects>
        <_>
          12 3 6 2 -1.</_>
        <_>
          15 3 3 2 2.</_></rects>
      <tilted>0</tilted></_>
    <_>
      <rects>
        <_>
          12 3 9 18 -1.</_>
        <_>
          15 3 3 18 3.</_></rects>
      <tilted>0</tilted></_>
    <_>
      <rects>
        <_>
          12 6 9 9 -1.</_>
        <_>
          12 9 9 3 3.</_></rects>
      <tilted>0</tilted></_>
    <_>
      <rects>
        <_>
          12 21 1 6 -1.</_>
        <_>
          12 24 1 3 2.</_></rects>
      <tilted>0</tilted></_>
    <_>
      <rects>
        <_>
          13 0 7 32 -1.</_>
        <_>
          13 16 7 16 2.</_></rects>
      <tilted>0</tilted></_>
    <_>
      <rects>
        <_>
          13 4 4 1 -1.</_>
        <_>
          15 4 2 1 2.</_></rects>
      <tilted>0</tilted></_>
    <_>
      <rects>
        <_>
          13 11 6 2 -1.</_>
        <_>
          15 11 2 2 3.</_></rects>
      <tilted>0</tilted></_>
    <_>
      <rects>
        <_>
          13 13 4 8 -1.</_>
        <_>
          13 13 2 4 2.</_>
        <_>
          15 17 2 4 2.</_></rects>
      <tilted>0</tilted></_>
    <_>
      <rects>
        <_>
          13 14 6 1 -1.</_>
        <_>
          15 14 2 1 3.</_></rects>
      <tilted>0</tilted></_>
    <_>
      <rects>
        <_>
          13 17 6 4 -1.</_>
        <_>
          15 17 2 4 3.</_></rects>
      <tilted>0</tilted></_>
    <_>
      <rects>
        <_>
          14 0 1 18 -1.</_>
        <_>
          14 6 1 6 3.</_></rects>
      <tilted>0</tilted></_>
    <_>
      <rects>
        <_>
          14 11 12 3 -1.</_>
        <_>
          18 11 4 3 3.</_></rects>
      <tilted>0</tilted></_>
    <_>
      <rects>
        <_>
          14 14 6 1 -1.</_>
        <_>
          16 14 2 1 3.</_></rects>
      <tilted>0</tilted></_>
    <_>
      <rects>
        <_>
          15 2 9 30 -1.</_>
        <_>
          18 2 3 30 3.</_></rects>
      <tilted>0</tilted></_>
    <_>
      <rects>
        <_>
          15 8 2 12 -1.</_>
        <_>
          15 8 1 6 2.</_>
        <_>
          16 14 1 6 2.</_></rects>
      <tilted>0</tilted></_>
    <_>
      <rects>
        <_>
          15 12 2 8 -1.</_>
        <_>
          15 12 1 4 2.</_>
        <_>
          16 16 1 4 2.</_></rects>
      <tilted>0</tilted></_>
    <_>
      <rects>
        <_>
          15 16 2 6 -1.</_>
        <_>
          15 18 2 2 3.</_></rects>
      <tilted>0</tilted></_>
    <_>
      <rects>
        <_>
          16 13 2 3 -1.</_>
        <_>
          17 13 1 3 2.</_></rects>
      <tilted>0</tilted></_>
    <_>
      <rects>
        <_>
          16 19 15 6 -1.</_>
        <_>
          16 21 15 2 3.</_></rects>
      <tilted>0</tilted></_>
    <_>
      <rects>
        <_>
          16 22 3 3 -1.</_>
        <_>
          17 22 1 3 3.</_></rects>
      <tilted>0</tilted></_>
    <_>
      <rects>
        <_>
          17 0 12 11 -1.</_>
        <_>
          21 0 4 11 3.</_></rects>
      <tilted>0</tilted></_>
    <_>
      <rects>
        <_>
          18 4 4 6 -1.</_>
        <_>
          18 4 2 3 2.</_>
        <_>
          20 7 2 3 2.</_></rects>
      <tilted>0</tilted></_>
    <_>
      <rects>
        <_>
          18 26 9 3 -1.</_>
        <_>
          21 26 3 3 3.</_></rects>
      <tilted>0</tilted></_>
    <_>
      <rects>
        <_>
          21 29 3 3 -1.</_>
        <_>
          22 29 1 3 3.</_></rects>
      <tilted>0</tilted></_>
    <_>
      <rects>
        <_>
          22 0 6 2 -1.</_>
        <_>
          22 0 3 1 2.</_>
        <_>
          25 1 3 1 2.</_></rects>
      <tilted>0</tilted></_>
    <_>
      <rects>
        <_>
          24 9 4 9 -1.</_>
        <_>
          24 12 4 3 3.</_></rects>
      <tilted>0</tilted></_>
    <_>
      <rects>
        <_>
          26 0 6 29 -1.</_>
        <_>
          29 0 3 29 2.</_></rects>
      <tilted>0</tilted></_>
    <_>
      <rects>
        <_>
          29 18 3 3 -1.</_>
        <_>
          29 19 3 1 3.</_></rects>
      <tilted>0</tilted></_>
    <_>
      <rects>
        <_>
          29 21 3 6 -1.</_>
        <_>
          29 23 3 2 3.</_></rects>
      <tilted>0</tilted></_>
    <_>
      <rects>
        <_>
          30 17 1 6 -1.</_>
        <_>
          30 19 1 2 3.</_></rects>
      <tilted>0</tilted></_>
    <_>
      <rects>
        <_>
          31 3 1 18 -1.</_>
        <_>
          31 9 1 6 3.</_></rects>
      <tilted>0</tilted></_>
    <_>
      <rects>
        <_>
          31 4 1 15 -1.</_>
        <_>
          31 9 1 5 3.</_></rects>
      <tilted>0</tilted></_>
    <_>
      <rects>
        <_>
          31 7 1 9 -1.</_>
        <_>
          31 10 1 3 3.</_></rects>
      <tilted>0</tilted></_>
    <_>
      <rects>
        <_>
          31 8 1 24 -1.</_>
        <_>
          31 20 1 12 2.</_></rects>
      <tilted>0</tilted></_></features></cascade>
</opencv_storage>
