<?xml version="1.0"?>
<opencv_storage>
<cascade>
  <stageType>BOOST</stageType>
  <featureType>HAAR</featureType>
  <height>32</height>
  <width>32</width>
  <stageParams>
    <boostType>GAB</boostType>
    <minHitRate>9.9500000476837158e-01</minHitRate>
    <maxFalseAlarm>5.0000000000000000e-01</maxFalseAlarm>
    <weightTrimRate>9.4999998807907104e-01</weightTrimRate>
    <maxDepth>1</maxDepth>
    <maxWeakCount>100</maxWeakCount></stageParams>
  <featureParams>
    <maxCatCount>0</maxCatCount>
    <featSize>1</featSize>
    <mode>BASIC</mode></featureParams>
  <stageNum>14</stageNum>
  <stages>
    <!-- stage 0 -->
    <_>
      <maxWeakCount>5</maxWeakCount>
      <stageThreshold>-1.6031407117843628e+00</stageThreshold>
      <weakClassifiers>
        <_>
          <internalNodes>
            0 -1 41 8.5781194269657135e-02</internalNodes>
          <leafValues>
            -9.0009796619415283e-01 3.3333334326744080e-01</leafValues></_>
        <_>
          <internalNodes>
            0 -1 40 -3.3571042120456696e-02</internalNodes>
          <leafValues>
            3.8150927424430847e-01 -7.3809921741485596e-01</leafValues></_>
        <_>
          <internalNodes>
            0 -1 55 -4.4189617037773132e-02</internalNodes>
          <leafValues>
            5.8906584978103638e-01 -4.7889676690101624e-01</leafValues></_>
        <_>
          <internalNodes>
            0 -1 0 1.6076341853477061e-04</internalNodes>
          <leafValues>
            2.7276960015296936e-01 -8.9166551828384399e-01</leafValues></_>
        <_>
          <internalNodes>
            0 -1 71 -4.3726722651626915e-05</internalNodes>
          <leafValues>
            -8.5520112514495850e-01 2.4118360877037048e-01</leafValues></_></weakClassifiers></_>
    <!-- stage 1 -->
    <_>
      <maxWeakCount>4</maxWeakCount>
      <stageThreshold>-1.9026247262954712e+00</stageThreshold>
      <weakClassifiers>
        <_>
          <internalNodes>
            0 -1 39 -2.2351908683776855e-01</internalNodes>
          <leafValues>
            8.6956523358821869e-02 -9.2600208520889282e-01</leafValues></_>
        <_>
          <internalNodes>
            0 -1 9 -9.5178782939910889e-02</internalNodes>
          <leafValues>
            3.5071980953216553e-01 -7.9532140493392944e-01</leafValues></_>
        <_>
          <internalNodes>
            0 -1 80 8.0804846948012710e-04</internalNodes>
          <leafValues>
            -5.7443958520889282e-01 5.2498483657836914e-01</leafValues></_>
        <_>
          <internalNodes>
            0 -1 23 2.4480500724166632e-03</internalNodes>
          <leafValues>
            -7.0628607273101807e-01 4.7644963860511780e-01</leafValues></_></weakClassifiers></_>
    <!-- stage 2 -->
    <_>
      <maxWeakCount>6</maxWeakCount>
      <stageThreshold>-1.8785901069641113e+00</stageThreshold>
      <weakClassifiers>
        <_>
          <internalNodes>
            0 -1 38 -5.1931464672088623e-01</internalNodes>
          <leafValues>
            4.2253520339727402e-02 -8.5769230127334595e-01</leafValues></_>
        <_>
          <internalNodes>
            0 -1 7 -3.1710967421531677e-02</internalNodes>
          <leafValues>
            2.3952610790729523e-01 -7.0965760946273804e-01</leafValues></_>
        <_>
          <internalNodes>
            0 -1 3 -5.9282588154019322e-06</internalNodes>
          <leafValues>
            -8.4454292058944702e-01 1.8096165359020233e-01</leafValues></_>
        <_>
          <internalNodes>
            0 -1 5 -3.8873911835253239e-03</internalNodes>
          <leafValues>
            -8.7078863382339478e-01 2.0209878683090210e-01</leafValues></_>
        <_>
          <internalNodes>
            0 -1 21 6.8964886850153562e-06</internalNodes>
          <leafValues>
            2.5075608491897583e-01 -8.3423775434494019e-01</leafValues></_>
        <_>
          <internalNodes>
            0 -1 84 -5.9377684920036700e-06</internalNodes>
          <leafValues>
            -8.0924665927886963e-01 2.0194181799888611e-01</leafValues></_></weakClassifiers></_>
    <!-- stage 3 -->
    <_>
      <maxWeakCount>6</maxWeakCount>
      <stageThreshold>-1.8349308967590332e+00</stageThreshold>
      <weakClassifiers>
        <_>
          <internalNodes>
            0 -1 43 -2.3947590962052345e-02</internalNodes>
          <leafValues>
            -1.3043478131294250e-01 -8.7751001119613647e-01</leafValues></_>
        <_>
          <internalNodes>
            0 -1 69 3.4349553287029266e-02</internalNodes>
          <leafValues>
            -6.9990837574005127e-01 1.9641377031803131e-01</leafValues></_>
        <_>
          <internalNodes>
            0 -1 10 -1.1732393875718117e-02</internalNodes>
          <leafValues>
            6.4708477258682251e-01 -3.3963394165039063e-01</leafValues></_>
        <_>
          <internalNodes>
            0 -1 20 4.8454557545483112e-03</internalNodes>
          <leafValues>
            2.3816815018653870e-01 -8.6035966873168945e-01</leafValues></_>
        <_>
          <internalNodes>
            0 -1 58 3.6448002792894840e-03</internalNodes>
          <leafValues>
            -2.9899322986602783e-01 6.5745335817337036e-01</leafValues></_>
        <_>
          <internalNodes>
            0 -1 62 -6.1268292483873665e-06</internalNodes>
          <leafValues>
            -8.1350004673004150e-01 2.3995266854763031e-01</leafValues></_></weakClassifiers></_>
    <!-- stage 4 -->
    <_>
      <maxWeakCount>4</maxWeakCount>
      <stageThreshold>-1.8072236776351929e+00</stageThreshold>
      <weakClassifiers>
        <_>
          <internalNodes>
            0 -1 76 3.1304635107517242e-02</internalNodes>
          <leafValues>
            -8.9041095972061157e-01 -2.7160492539405823e-01</leafValues></_>
        <_>
          <internalNodes>
            0 -1 49 5.5089838802814484e-02</internalNodes>
          <leafValues>
            -6.8985223770141602e-01 1.8347652256488800e-01</leafValues></_>
        <_>
          <internalNodes>
            0 -1 15 1.4658635482192039e-03</internalNodes>
          <leafValues>
            1.5215781331062317e-01 -8.3784842491149902e-01</leafValues></_>
        <_>
          <internalNodes>
            0 -1 26 -5.0764069892466068e-03</internalNodes>
          <leafValues>
            -8.8124686479568481e-01 1.6565071046352386e-01</leafValues></_></weakClassifiers></_>
    <!-- stage 5 -->
    <_>
      <maxWeakCount>6</maxWeakCount>
      <stageThreshold>-1.8696353435516357e+00</stageThreshold>
      <weakClassifiers>
        <_>
          <internalNodes>
            0 -1 25 -3.1743758916854858e-01</internalNodes>
          <leafValues>
            -1.7948718369007111e-01 -8.7323945760726929e-01</leafValues></_>
        <_>
          <internalNodes>
            0 -1 11 -4.0252521634101868e-02</internalNodes>
          <leafValues>
            9.9461607635021210e-02 -6.5061289072036743e-01</leafValues></_>
        <_>
          <internalNodes>
            0 -1 22 -2.3252032406162471e-04</internalNodes>
          <leafValues>
            -8.8755065202713013e-01 1.4450718462467194e-01</leafValues></_>
        <_>
          <internalNodes>
            0 -1 27 -1.9540158973541111e-04</internalNodes>
          <leafValues>
            -8.6998498439788818e-01 1.7839591205120087e-01</leafValues></_>
        <_>
          <internalNodes>
            0 -1 83 -1.4124700101092458e-05</internalNodes>
          <leafValues>
            -7.8661870956420898e-01 1.5877115726470947e-01</leafValues></_>
        <_>
          <internalNodes>
            0 -1 87 5.4130852222442627e-03</internalNodes>
          <leafValues>
            1.1793261021375656e-01 -9.0953457355499268e-01</leafValues></_></weakClassifiers></_>
    <!-- stage 6 -->
    <_>
      <maxWeakCount>4</maxWeakCount>
      <stageThreshold>-1.5113734006881714e+00</stageThreshold>
      <weakClassifiers>
        <_>
          <internalNodes>
            0 -1 43 -2.3981314152479172e-02</internalNodes>
          <leafValues>
            7.5268819928169250e-02 -8.8015717267990112e-01</leafValues></_>
        <_>
          <internalNodes>
            0 -1 52 6.4536493482592050e-06</internalNodes>
          <leafValues>
            -6.5593838691711426e-01 4.6797659993171692e-01</leafValues></_>
        <_>
          <internalNodes>
            0 -1 54 2.7587730437517166e-04</internalNodes>
          <leafValues>
            -4.6670731902122498e-01 6.1665892601013184e-01</leafValues></_>
        <_>
          <internalNodes>
            0 -1 57 1.2337828986346722e-02</internalNodes>
          <leafValues>
            -5.9193676710128784e-01 4.9293819069862366e-01</leafValues></_></weakClassifiers></_>
    <!-- stage 7 -->
    <_>
      <maxWeakCount>7</maxWeakCount>
      <stageThreshold>-1.9032506942749023e+00</stageThreshold>
      <weakClassifiers>
        <_>
          <internalNodes>
            0 -1 73 3.9443098008632660e-02</internalNodes>
          <leafValues>
            -8.5887098312377930e-01 -3.1092438101768494e-01</leafValues></_>
        <_>
          <internalNodes>
            0 -1 8 -8.8008353486657143e-05</internalNodes>
          <leafValues>
            -4.3299235403537750e-03 -7.7623152732849121e-01</leafValues></_>
        <_>
          <internalNodes>
            0 -1 74 -5.9031015553046018e-05</internalNodes>
          <leafValues>
            3.7673422694206238e-01 -4.6607658267021179e-01</leafValues></_>
        <_>
          <internalNodes>
            0 -1 85 -6.5184617415070534e-03</internalNodes>
          <leafValues>
            -7.3510789871215820e-01 2.0043469965457916e-01</leafValues></_>
        <_>
          <internalNodes>
            0 -1 59 -2.6314244605600834e-03</internalNodes>
          <leafValues>
            3.7093126773834229e-01 -4.5481130480766296e-01</leafValues></_>
        <_>
          <internalNodes>
            0 -1 14 -2.5343376910313964e-04</internalNodes>
          <leafValues>
            -8.1292492151260376e-01 1.5937322378158569e-01</leafValues></_>
        <_>
          <internalNodes>
            0 -1 46 4.8862020776141435e-05</internalNodes>
          <leafValues>
            -3.8623800873756409e-01 3.6536514759063721e-01</leafValues></_></weakClassifiers></_>
    <!-- stage 8 -->
    <_>
      <maxWeakCount>6</maxWeakCount>
      <stageThreshold>-1.8358795642852783e+00</stageThreshold>
      <weakClassifiers>
        <_>
          <internalNodes>
            0 -1 17 -1.2136006262153387e-05</internalNodes>
          <leafValues>
            -9.6923077106475830e-01 -6.1216729879379272e-01</leafValues></_>
        <_>
          <internalNodes>
            0 -1 6 -1.6953033991740085e-05</internalNodes>
          <leafValues>
            -7.6134192943572998e-01 3.6860283464193344e-02</leafValues></_>
        <_>
          <internalNodes>
            0 -1 24 3.1900158501230180e-04</internalNodes>
          <leafValues>
            1.4667095243930817e-01 -9.1412347555160522e-01</leafValues></_>
        <_>
          <internalNodes>
            0 -1 13 9.9216075614094734e-04</internalNodes>
          <leafValues>
            2.1710479259490967e-01 -7.1091586351394653e-01</leafValues></_>
        <_>
          <internalNodes>
            0 -1 77 5.4071992635726929e-03</internalNodes>
          <leafValues>
            -6.4211386442184448e-01 2.5368684530258179e-01</leafValues></_>
        <_>
          <internalNodes>
            0 -1 82 4.8913199861999601e-05</internalNodes>
          <leafValues>
            2.0525115728378296e-01 -8.0358040332794189e-01</leafValues></_></weakClassifiers></_>
    <!-- stage 9 -->
    <_>
      <maxWeakCount>8</maxWeakCount>
      <stageThreshold>-1.7689778804779053e+00</stageThreshold>
      <weakClassifiers>
        <_>
          <internalNodes>
            0 -1 64 -2.8545680642127991e-01</internalNodes>
          <leafValues>
            -2.3255814611911774e-01 -8.4780490398406982e-01</leafValues></_>
        <_>
          <internalNodes>
            0 -1 65 5.6044034659862518e-02</internalNodes>
          <leafValues>
            -6.7662310600280762e-01 2.3199358955025673e-02</leafValues></_>
        <_>
          <internalNodes>
            0 -1 18 -7.9086428740993142e-05</internalNodes>
          <leafValues>
            -8.9785081148147583e-01 9.4664938747882843e-02</leafValues></_>
        <_>
          <internalNodes>
            0 -1 86 -1.6154601325979456e-05</internalNodes>
          <leafValues>
            -9.4009709358215332e-01 1.1742344498634338e-01</leafValues></_>
        <_>
          <internalNodes>
            0 -1 51 5.6093074381351471e-03</internalNodes>
          <leafValues>
            9.7624778747558594e-02 -1.</leafValues></_>
        <_>
          <internalNodes>
            0 -1 47 1.8889449536800385e-02</internalNodes>
          <leafValues>
            -4.3425855040550232e-01 2.3720444738864899e-01</leafValues></_>
        <_>
          <internalNodes>
            0 -1 60 -8.5981180891394615e-03</internalNodes>
          <leafValues>
            5.5774313211441040e-01 -2.4458406865596771e-01</leafValues></_>
        <_>
          <internalNodes>
            0 -1 88 -1.6265323210973293e-05</internalNodes>
          <leafValues>
            -6.7774766683578491e-01 1.9368559122085571e-01</leafValues></_></weakClassifiers></_>
    <!-- stage 10 -->
    <_>
      <maxWeakCount>9</maxWeakCount>
      <stageThreshold>-1.7965087890625000e+00</stageThreshold>
      <weakClassifiers>
        <_>
          <internalNodes>
            0 -1 34 -2.3448446765542030e-02</internalNodes>
          <leafValues>
            1.1111111193895340e-01 -8.2287824153900146e-01</leafValues></_>
        <_>
          <internalNodes>
            0 -1 45 3.8219790440052748e-05</internalNodes>
          <leafValues>
            -6.0581952333450317e-01 7.2368018329143524e-02</leafValues></_>
        <_>
          <internalNodes>
            0 -1 4 -3.1606303527951241e-03</internalNodes>
          <leafValues>
            1.6306474804878235e-01 -6.3247221708297729e-01</leafValues></_>
        <_>
          <internalNodes>
            0 -1 90 -2.0483933622017503e-04</internalNodes>
          <leafValues>
            -8.9901864528656006e-01 1.0377722233533859e-01</leafValues></_>
        <_>
          <internalNodes>
            0 -1 30 -6.0955877415835857e-04</internalNodes>
          <leafValues>
            3.0188134312629700e-01 -4.1598007082939148e-01</leafValues></_>
        <_>
          <internalNodes>
            0 -1 16 2.7560656890273094e-03</internalNodes>
          <leafValues>
            -2.9947707056999207e-01 3.8961446285247803e-01</leafValues></_>
        <_>
          <internalNodes>
            0 -1 70 -1.0729640052886680e-05</internalNodes>
          <leafValues>
            3.3088380098342896e-01 -3.5593265295028687e-01</leafValues></_>
        <_>
          <internalNodes>
            0 -1 91 -6.1143014136177953e-06</internalNodes>
          <leafValues>
            -6.8914252519607544e-01 1.8084655702114105e-01</leafValues></_>
        <_>
          <internalNodes>
            0 -1 53 1.0243951110169291e-03</internalNodes>
          <leafValues>
            -3.4973365068435669e-01 3.3356583118438721e-01</leafValues></_></weakClassifiers></_>
    <!-- stage 11 -->
    <_>
      <maxWeakCount>10</maxWeakCount>
      <stageThreshold>-1.7660667896270752e+00</stageThreshold>
      <weakClassifiers>
        <_>
          <internalNodes>
            0 -1 79 -9.1661207377910614e-02</internalNodes>
          <leafValues>
            1. -8.1323665380477905e-01</leafValues></_>
        <_>
          <internalNodes>
            0 -1 42 2.6863762177526951e-03</internalNodes>
          <leafValues>
            -5.3602337837219238e-01 5.0166327506303787e-02</leafValues></_>
        <_>
          <internalNodes>
            0 -1 1 -5.7490309700369835e-03</internalNodes>
          <leafValues>
            -8.2786393165588379e-01 1.1567967385053635e-01</leafValues></_>
        <_>
          <internalNodes>
            0 -1 67 -6.4815357327461243e-02</internalNodes>
          <leafValues>
            3.8196727633476257e-01 -3.2720956206321716e-01</leafValues></_>
        <_>
          <internalNodes>
            0 -1 19 9.4539936981163919e-05</internalNodes>
          <leafValues>
            1.2358027696609497e-01 -8.1884312629699707e-01</leafValues></_>
        <_>
          <internalNodes>
            0 -1 36 -1.0781982564367354e-04</internalNodes>
          <leafValues>
            3.0693864822387695e-01 -3.1672969460487366e-01</leafValues></_>
        <_>
          <internalNodes>
            0 -1 32 -3.1834937632083893e-02</internalNodes>
          <leafValues>
            3.4352314472198486e-01 -2.8945532441139221e-01</leafValues></_>
        <_>
          <internalNodes>
            0 -1 56 1.1339515447616577e-02</internalNodes>
          <leafValues>
            -1.5404063463211060e-01 6.5742820501327515e-01</leafValues></_>
        <_>
          <internalNodes>
            0 -1 81 3.1853400287218392e-05</internalNodes>
          <leafValues>
            1.3909183442592621e-01 -7.9090058803558350e-01</leafValues></_>
        <_>
          <internalNodes>
            0 -1 29 6.8922797217965126e-03</internalNodes>
          <leafValues>
            -2.9391306638717651e-01 3.2805088162422180e-01</leafValues></_></weakClassifiers></_>
    <!-- stage 12 -->
    <_>
      <maxWeakCount>11</maxWeakCount>
      <stageThreshold>-1.5379526615142822e+00</stageThreshold>
      <weakClassifiers>
        <_>
          <internalNodes>
            0 -1 61 -4.7211484343279153e-05</internalNodes>
          <leafValues>
            -6.2469136714935303e-01 -9.0084987878799438e-01</leafValues></_>
        <_>
          <internalNodes>
            0 -1 48 1.4610902871936560e-04</internalNodes>
          <leafValues>
            -6.3513177633285522e-01 -4.9252081662416458e-02</leafValues></_>
        <_>
          <internalNodes>
            0 -1 2 6.4443871378898621e-03</internalNodes>
          <leafValues>
            1.0011707991361618e-01 -7.8952348232269287e-01</leafValues></_>
        <_>
          <internalNodes>
            0 -1 44 -9.4841816462576389e-05</internalNodes>
          <leafValues>
            3.4867662191390991e-01 -2.7626579999923706e-01</leafValues></_>
        <_>
          <internalNodes>
            0 -1 35 3.2401938369730487e-05</internalNodes>
          <leafValues>
            1.5188273787498474e-01 -7.7651047706604004e-01</leafValues></_>
        <_>
          <internalNodes>
            0 -1 63 -1.9769223872572184e-03</internalNodes>
          <leafValues>
            1.8836347758769989e-01 -4.2059811949729919e-01</leafValues></_>
        <_>
          <internalNodes>
            0 -1 37 -5.4263444617390633e-03</internalNodes>
          <leafValues>
            6.8187469244003296e-01 -1.2810613214969635e-01</leafValues></_>
        <_>
          <internalNodes>
            0 -1 72 7.5375556480139494e-04</internalNodes>
          <leafValues>
            1.2289101630449295e-01 -9.0390115976333618e-01</leafValues></_>
        <_>
          <internalNodes>
            0 -1 93 -1.5728168655186892e-03</internalNodes>
          <leafValues>
            -8.1660872697830200e-01 8.7163895368576050e-02</leafValues></_>
        <_>
          <internalNodes>
            0 -1 31 2.1679005585610867e-03</internalNodes>
          <leafValues>
            -3.1852978467941284e-01 2.7612170577049255e-01</leafValues></_>
        <_>
          <internalNodes>
            0 -1 33 6.5888613462448120e-02</internalNodes>
          <leafValues>
            -1.5078131854534149e-01 7.0707648992538452e-01</leafValues></_></weakClassifiers></_>
    <!-- stage 13 -->
    <_>
      <maxWeakCount>9</maxWeakCount>
      <stageThreshold>-1.5674709081649780e+00</stageThreshold>
      <weakClassifiers>
        <_>
          <internalNodes>
            0 -1 66 6.1062574386596680e-02</internalNodes>
          <leafValues>
            -8.1142336130142212e-01 7.5000000000000000e-01</leafValues></_>
        <_>
          <internalNodes>
            0 -1 75 6.2959105707705021e-04</internalNodes>
          <leafValues>
            -5.1786667108535767e-01 6.0585588216781616e-02</leafValues></_>
        <_>
          <internalNodes>
            0 -1 92 1.9376914715394378e-03</internalNodes>
          <leafValues>
            7.5873762369155884e-02 -9.0286904573440552e-01</leafValues></_>
        <_>
          <internalNodes>
            0 -1 12 5.4032150655984879e-03</internalNodes>
          <leafValues>
            1.2329465895891190e-01 -9.3152761459350586e-01</leafValues></_>
        <_>
          <internalNodes>
            0 -1 68 -2.3393472656607628e-03</internalNodes>
          <leafValues>
            3.0811855196952820e-01 -2.8142261505126953e-01</leafValues></_>
        <_>
          <internalNodes>
            0 -1 89 -1.3610875612357631e-05</internalNodes>
          <leafValues>
            -5.3655433654785156e-01 1.6977961361408234e-01</leafValues></_>
        <_>
          <internalNodes>
            0 -1 78 -1.4634875697083771e-04</internalNodes>
          <leafValues>
            2.9322874546051025e-01 -3.2365578413009644e-01</leafValues></_>
        <_>
          <internalNodes>
            0 -1 28 -6.3914954662322998e-03</internalNodes>
          <leafValues>
            4.1017487645149231e-01 -2.2982308268547058e-01</leafValues></_>
        <_>
          <internalNodes>
            0 -1 50 5.9646436056937091e-06</internalNodes>
          <leafValues>
            -2.6123020052909851e-01 3.3803257346153259e-01</leafValues></_></weakClassifiers></_></stages>
  <features>
    <_>
      <rects>
        <_>
          0 0 1 10 -1.</_>
        <_>
          0 5 1 5 2.</_></rects>
      <tilted>0</tilted></_>
    <_>
      <rects>
        <_>
          0 0 1 28 -1.</_>
        <_>
          0 14 1 14 2.</_></rects>
      <tilted>0</tilted></_>
    <_>
      <rects>
        <_>
          0 0 1 32 -1.</_>
        <_>
          0 16 1 16 2.</_></rects>
      <tilted>0</tilted></_>
    <_>
      <rects>
        <_>
          0 0 4 1 -1.</_>
        <_>
          2 0 2 1 2.</_></rects>
      <tilted>0</tilted></_>
    <_>
      <rects>
        <_>
          0 0 8 31 -1.</_>
        <_>
          4 0 4 31 2.</_></rects>
      <tilted>0</tilted></_>
    <_>
      <rects>
        <_>
          0 0 30 1 -1.</_>
        <_>
          15 0 15 1 2.</_></rects>
      <tilted>0</tilted></_>
    <_>
      <rects>
        <_>
          0 1 1 8 -1.</_>
        <_>
          0 5 1 4 2.</_></rects>
      <tilted>0</tilted></_>
    <_>
      <rects>
        <_>
          0 4 10 20 -1.</_>
        <_>
          5 4 5 20 2.</_></rects>
      <tilted>0</tilted></_>
    <_>
      <rects>
        <_>
          0 5 12 7 -1.</_>
        <_>
          6 5 6 7 2.</_></rects>
      <tilted>0</tilted></_>
    <_>
      <rects>
        <_>
          0 5 27 24 -1.</_>
        <_>
          9 5 9 24 3.</_></rects>
      <tilted>0</tilted></_>
    <_>
      <rects>
        <_>
          0 6 4 15 -1.</_>
        <_>
          2 6 2 15 2.</_></rects>
      <tilted>0</tilted></_>
    <_>
      <rects>
        <_>
          0 6 10 18 -1.</_>
        <_>
          5 6 5 18 2.</_></rects>
      <tilted>0</tilted></_>
    <_>
      <rects>
        <_>
          0 16 1 16 -1.</_>
        <_>
          0 24 1 8 2.</_></rects>
      <tilted>0</tilted></_>
    <_>
      <rects>
        <_>
          0 17 1 12 -1.</_>
        <_>
          0 21 1 4 3.</_></rects>
      <tilted>0</tilted></_>
    <_>
      <rects>
        <_>
          0 19 2 9 -1.</_>
        <_>
          0 22 2 3 3.</_></rects>
      <tilted>0</tilted></_>
    <_>
      <rects>
        <_>
          0 20 1 12 -1.</_>
        <_>
          0 26 1 6 2.</_></rects>
      <tilted>0</tilted></_>
    <_>
      <rects>
        <_>
          0 20 15 9 -1.</_>
        <_>
          5 20 5 9 3.</_></rects>
      <tilted>0</tilted></_>
    <_>
      <rects>
        <_>
          0 23 1 6 -1.</_>
        <_>
          0 26 1 3 2.</_></rects>
      <tilted>0</tilted></_>
    <_>
      <rects>
        <_>
          0 23 2 8 -1.</_>
        <_>
          0 23 1 4 2.</_>
        <_>
          1 27 1 4 2.</_></rects>
      <tilted>0</tilted></_>
    <_>
      <rects>
        <_>
          0 31 6 1 -1.</_>
        <_>
          2 31 2 1 3.</_></rects>
      <tilted>0</tilted></_>
    <_>
      <rects>
        <_>
          0 31 30 1 -1.</_>
        <_>
          15 31 15 1 2.</_></rects>
      <tilted>0</tilted></_>
    <_>
      <rects>
        <_>
          1 0 4 3 -1.</_>
        <_>
          3 0 2 3 2.</_></rects>
      <tilted>0</tilted></_>
    <_>
      <rects>
        <_>
          1 1 6 2 -1.</_>
        <_>
          3 1 2 2 3.</_></rects>
      <tilted>0</tilted></_>
    <_>
      <rects>
        <_>
          1 20 23 12 -1.</_>
        <_>
          1 26 23 6 2.</_></rects>
      <tilted>0</tilted></_>
    <_>
      <rects>
        <_>
          2 0 8 2 -1.</_>
        <_>
          6 0 4 2 2.</_></rects>
      <tilted>0</tilted></_>
    <_>
      <rects>
        <_>
          2 3 30 23 -1.</_>
        <_>
          12 3 10 23 3.</_></rects>
      <tilted>0</tilted></_>
    <_>
      <rects>
        <_>
          2 31 26 1 -1.</_>
        <_>
          15 31 13 1 2.</_></rects>
      <tilted>0</tilted></_>
    <_>
      <rects>
        <_>
          3 0 6 1 -1.</_>
        <_>
          6 0 3 1 2.</_></rects>
      <tilted>0</tilted></_>
    <_>
      <rects>
        <_>
          3 1 17 4 -1.</_>
        <_>
          3 3 17 2 2.</_></rects>
      <tilted>0</tilted></_>
    <_>
      <rects>
        <_>
          3 2 8 15 -1.</_>
        <_>
          3 7 8 5 3.</_></rects>
      <tilted>0</tilted></_>
    <_>
      <rects>
        <_>
          3 10 29 2 -1.</_>
        <_>
          3 11 29 1 2.</_></rects>
      <tilted>0</tilted></_>
    <_>
      <rects>
        <_>
          3 19 6 12 -1.</_>
        <_>
          3 23 6 4 3.</_></rects>
      <tilted>0</tilted></_>
    <_>
      <rects>
        <_>
          4 0 20 8 -1.</_>
        <_>
          4 4 20 4 2.</_></rects>
      <tilted>0</tilted></_>
    <_>
      <rects>
        <_>
          4 18 24 12 -1.</_>
        <_>
          4 18 12 6 2.</_>
        <_>
          16 24 12 6 2.</_></rects>
      <tilted>0</tilted></_>
    <_>
      <rects>
        <_>
          4 21 12 6 -1.</_>
        <_>
          4 21 6 3 2.</_>
        <_>
          10 24 6 3 2.</_></rects>
      <tilted>0</tilted></_>
    <_>
      <rects>
        <_>
          4 26 2 4 -1.</_>
        <_>
          5 26 1 4 2.</_></rects>
      <tilted>0</tilted></_>
    <_>
      <rects>
        <_>
          5 2 2 12 -1.</_>
        <_>
          5 2 1 6 2.</_>
        <_>
          6 8 1 6 2.</_></rects>
      <tilted>0</tilted></_>
    <_>
      <rects>
        <_>
          6 0 20 2 -1.</_>
        <_>
          6 1 20 1 2.</_></rects>
      <tilted>0</tilted></_>
    <_>
      <rects>
        <_>
          6 1 24 30 -1.</_>
        <_>
          6 11 24 10 3.</_></rects>
      <tilted>0</tilted></_>
    <_>
      <rects>
        <_>
          6 2 22 30 -1.</_>
        <_>
          6 12 22 10 3.</_></rects>
      <tilted>0</tilted></_>
    <_>
      <rects>
        <_>
          7 2 6 24 -1.</_>
        <_>
          7 10 6 8 3.</_></rects>
      <tilted>0</tilted></_>
    <_>
      <rects>
        <_>
          8 20 15 12 -1.</_>
        <_>
          8 26 15 6 2.</_></rects>
      <tilted>0</tilted></_>
    <_>
      <rects>
        <_>
          8 26 24 2 -1.</_>
        <_>
          8 27 24 1 2.</_></rects>
      <tilted>0</tilted></_>
    <_>
      <rects>
        <_>
          9 1 1 30 -1.</_>
        <_>
          9 11 1 10 3.</_></rects>
      <tilted>0</tilted></_>
    <_>
      <rects>
        <_>
          9 5 2 5 -1.</_>
        <_>
          10 5 1 5 2.</_></rects>
      <tilted>0</tilted></_>
    <_>
      <rects>
        <_>
          9 5 2 12 -1.</_>
        <_>
          9 5 1 6 2.</_>
        <_>
          10 11 1 6 2.</_></rects>
      <tilted>0</tilted></_>
    <_>
      <rects>
        <_>
          9 15 4 6 -1.</_>
        <_>
          9 17 4 2 3.</_></rects>
      <tilted>0</tilted></_>
    <_>
      <rects>
        <_>
          9 19 22 9 -1.</_>
        <_>
          20 19 11 9 2.</_></rects>
      <tilted>0</tilted></_>
    <_>
      <rects>
        <_>
          9 25 22 2 -1.</_>
        <_>
          9 26 22 1 2.</_></rects>
      <tilted>0</tilted></_>
    <_>
      <rects>
        <_>
          10 17 22 11 -1.</_>
        <_>
          21 17 11 11 2.</_></rects>
      <tilted>0</tilted></_>
    <_>
      <rects>
        <_>
          11 18 4 2 -1.</_>
        <_>
          11 18 2 1 2.</_>
        <_>
          13 19 2 1 2.</_></rects>
      <tilted>0</tilted></_>
    <_>
      <rects>
        <_>
          12 0 20 1 -1.</_>
        <_>
          22 0 10 1 2.</_></rects>
      <tilted>0</tilted></_>
    <_>
      <rects>
        <_>
          12 7 2 4 -1.</_>
        <_>
          12 7 1 2 2.</_>
        <_>
          13 9 1 2 2.</_></rects>
      <tilted>0</tilted></_>
    <_>
      <rects>
        <_>
          12 14 12 7 -1.</_>
        <_>
          16 14 4 7 3.</_></rects>
      <tilted>0</tilted></_>
    <_>
      <rects>
        <_>
          12 19 6 6 -1.</_>
        <_>
          14 19 2 6 3.</_></rects>
      <tilted>0</tilted></_>
    <_>
      <rects>
        <_>
          14 8 18 16 -1.</_>
        <_>
          20 8 6 16 3.</_></rects>
      <tilted>0</tilted></_>
    <_>
      <rects>
        <_>
          14 13 10 6 -1.</_>
        <_>
          14 13 5 3 2.</_>
        <_>
          19 16 5 3 2.</_></rects>
      <tilted>0</tilted></_>
    <_>
      <rects>
        <_>
          14 20 9 12 -1.</_>
        <_>
          14 26 9 6 2.</_></rects>
      <tilted>0</tilted></_>
    <_>
      <rects>
        <_>
          14 25 4 6 -1.</_>
        <_>
          14 27 4 2 3.</_></rects>
      <tilted>0</tilted></_>
    <_>
      <rects>
        <_>
          15 0 2 12 -1.</_>
        <_>
          15 6 2 6 2.</_></rects>
      <tilted>0</tilted></_>
    <_>
      <rects>
        <_>
          15 0 14 12 -1.</_>
        <_>
          15 0 7 6 2.</_>
        <_>
          22 6 7 6 2.</_></rects>
      <tilted>0</tilted></_>
    <_>
      <rects>
        <_>
          15 12 12 2 -1.</_>
        <_>
          15 12 6 1 2.</_>
        <_>
          21 13 6 1 2.</_></rects>
      <tilted>0</tilted></_>
    <_>
      <rects>
        <_>
          16 0 9 1 -1.</_>
        <_>
          19 0 3 1 3.</_></rects>
      <tilted>0</tilted></_>
    <_>
      <rects>
        <_>
          16 6 14 6 -1.</_>
        <_>
          16 9 14 3 2.</_></rects>
      <tilted>0</tilted></_>
    <_>
      <rects>
        <_>
          17 1 11 30 -1.</_>
        <_>
          17 11 11 10 3.</_></rects>
      <tilted>0</tilted></_>
    <_>
      <rects>
        <_>
          18 0 14 30 -1.</_>
        <_>
          25 0 7 30 2.</_></rects>
      <tilted>0</tilted></_>
    <_>
      <rects>
        <_>
          19 16 12 16 -1.</_>
        <_>
          19 16 6 8 2.</_>
        <_>
          25 24 6 8 2.</_></rects>
      <tilted>0</tilted></_>
    <_>
      <rects>
        <_>
          20 2 5 30 -1.</_>
        <_>
          20 12 5 10 3.</_></rects>
      <tilted>0</tilted></_>
    <_>
      <rects>
        <_>
          20 5 8 8 -1.</_>
        <_>
          20 5 4 4 2.</_>
        <_>
          24 9 4 4 2.</_></rects>
      <tilted>0</tilted></_>
    <_>
      <rects>
        <_>
          20 15 12 13 -1.</_>
        <_>
          26 15 6 13 2.</_></rects>
      <tilted>0</tilted></_>
    <_>
      <rects>
        <_>
          21 2 2 16 -1.</_>
        <_>
          21 2 1 8 2.</_>
        <_>
          22 10 1 8 2.</_></rects>
      <tilted>0</tilted></_>
    <_>
      <rects>
        <_>
          21 29 11 2 -1.</_>
        <_>
          21 30 11 1 2.</_></rects>
      <tilted>0</tilted></_>
    <_>
      <rects>
        <_>
          21 31 8 1 -1.</_>
        <_>
          25 31 4 1 2.</_></rects>
      <tilted>0</tilted></_>
    <_>
      <rects>
        <_>
          22 13 10 6 -1.</_>
        <_>
          27 13 5 6 2.</_></rects>
      <tilted>0</tilted></_>
    <_>
      <rects>
        <_>
          23 0 2 18 -1.</_>
        <_>
          23 0 1 9 2.</_>
        <_>
          24 9 1 9 2.</_></rects>
      <tilted>0</tilted></_>
    <_>
      <rects>
        <_>
          23 20 2 9 -1.</_>
        <_>
          24 20 1 9 2.</_></rects>
      <tilted>0</tilted></_>
    <_>
      <rects>
        <_>
          24 9 8 13 -1.</_>
        <_>
          28 9 4 13 2.</_></rects>
      <tilted>0</tilted></_>
    <_>
      <rects>
        <_>
          24 9 8 23 -1.</_>
        <_>
          28 9 4 23 2.</_></rects>
      <tilted>0</tilted></_>
    <_>
      <rects>
        <_>
          24 10 3 6 -1.</_>
        <_>
          24 13 3 3 2.</_></rects>
      <tilted>0</tilted></_>
    <_>
      <rects>
        <_>
          25 1 3 24 -1.</_>
        <_>
          25 9 3 8 3.</_></rects>
      <tilted>0</tilted></_>
    <_>
      <rects>
        <_>
          25 8 2 19 -1.</_>
        <_>
          26 8 1 19 2.</_></rects>
      <tilted>0</tilted></_>
    <_>
      <rects>
        <_>
          27 27 2 3 -1.</_>
        <_>
          27 28 2 1 3.</_></rects>
      <tilted>0</tilted></_>
    <_>
      <rects>
        <_>
          28 27 3 5 -1.</_>
        <_>
          29 27 1 5 3.</_></rects>
      <tilted>0</tilted></_>
    <_>
      <rects>
        <_>
          30 11 2 13 -1.</_>
        <_>
          31 11 1 13 2.</_></rects>
      <tilted>0</tilted></_>
    <_>
      <rects>
        <_>
          30 28 2 3 -1.</_>
        <_>
          30 29 2 1 3.</_></rects>
      <tilted>0</tilted></_>
    <_>
      <rects>
        <_>
          31 1 1 30 -1.</_>
        <_>
          31 11 1 10 3.</_></rects>
      <tilted>0</tilted></_>
    <_>
      <rects>
        <_>
          31 2 1 3 -1.</_>
        <_>
          31 3 1 1 3.</_></rects>
      <tilted>0</tilted></_>
    <_>
      <rects>
        <_>
          31 2 1 30 -1.</_>
        <_>
          31 12 1 10 3.</_></rects>
      <tilted>0</tilted></_>
    <_>
      <rects>
        <_>
          31 6 1 4 -1.</_>
        <_>
          31 8 1 2 2.</_></rects>
      <tilted>0</tilted></_>
    <_>
      <rects>
        <_>
          31 8 1 12 -1.</_>
        <_>
          31 12 1 4 3.</_></rects>
      <tilted>0</tilted></_>
    <_>
      <rects>
        <_>
          31 10 1 6 -1.</_>
        <_>
          31 12 1 2 3.</_></rects>
      <tilted>0</tilted></_>
    <_>
      <rects>
        <_>
          31 12 1 6 -1.</_>
        <_>
          31 15 1 3 2.</_></rects>
      <tilted>0</tilted></_>
    <_>
      <rects>
        <_>
          31 15 1 15 -1.</_>
        <_>
          31 20 1 5 3.</_></rects>
      <tilted>0</tilted></_>
    <_>
      <rects>
        <_>
          31 17 1 12 -1.</_>
        <_>
          31 21 1 4 3.</_></rects>
      <tilted>0</tilted></_></features></cascade>
</opencv_storage>
